-0.9353090843566855 0.047571439466819326 -0.5098953094235662 0.3573726694112095 0.5133522486388854 0.3364135343644767 0.8763246474645151 0.5469579397395818 0.04276293480543317 -0.003312169442716412 0.0649749458422565 0.01861509907137666 0.7752541450953514 0.04656876687210274 
-1.3607851275453964 -0.017769677877053722 -0.4189734493963649 -0.544863329049389 0.4194878089473555 -0.9000219438842426 -0.2974544578734987 -0.278748238156674 0.09968997044826387 0.030833168507043464 0.37146970305607235 -0.007683755584750367 -0.42036586581753554 -0.37036368195992464 
-1.282484382877504 -0.07076131153455774 0.15056961072063732 -0.6514610860730851 -0.14792863831052658 0.19167700075562807 -0.03686596540701314 0.4818656459044393 -0.7311497028855806 -0.13519630379289976 -0.2356976807274425 -0.0379175068186399 -0.348302644117836 0.7775441070159606 
-0.6567372291826257 0.05429541779749953 0.6802033223407427 0.7198993452615632 -0.6855888981082571 0.3107177456763454 -0.47728397044177295 -0.5840826895116085 0.5292516976574592 0.12281825969396812 -0.1684544368473464 0.0227487364604428 -0.023945440751180967 -0.42139728577326463 
