-0.9353090843566855 0.04757143946681931 -0.5098953094235662 0.35737266941120954 0.5133522486388854 0.33641353436447674 0.8763246474645151 0.5469579397395818 0.04276293480543326 -0.0033121694427177095 0.06497494584225659 0.018615099071376668 0.7752541450953513 0.04656876687210266 
-1.3607851275453964 -0.017769677877053726 -0.4189734493963649 -0.5448633290493887 0.41948780894735554 -0.9000219438842426 -0.2974544578734987 -0.278748238156674 0.09968997044826403 0.030833168507041705 0.3714697030560724 -0.0076837555847503475 -0.42036586581753554 -0.3703636819599247 
-1.282484382877504 -0.0707613115345578 0.1505696107206374 -0.6514610860730848 -0.14792863831052663 0.19167700075562807 -0.03686596540701313 0.4818656459044393 -0.7311497028855806 -0.13519630379290115 -0.23569768072744246 -0.03791750681863988 -0.348302644117836 0.7775441070159603 
-0.6567372291826258 0.05429541779749951 0.6802033223407427 0.7198993452615633 -0.6855888981082571 0.31071774567634536 -0.4772839704417729 -0.5840826895116085 0.5292516976574593 0.12281825969396717 -0.16845443684734637 0.022748736460442807 -0.02394544075118096 -0.4213972857732647 
